{
    "average_equivalent_weights": [
        [
            1.8437052965164185,
            0.003457298967987299,
            -0.16221745312213898,
            0.951062023639679,
            -0.20405453443527222,
            2.643057346343994,
            -2.414914846420288,
            0.4724731743335724,
            2.3370437622070312,
            0.36836475133895874,
            0.09022201597690582,
            -1.8683675527572632,
            -1.8607274293899536,
            -0.46806636452674866,
            -0.299360454082489,
            -0.022857841104269028,
            -0.3870459496974945,
            0.8422558903694153,
            0.09253541380167007,
            1.064981460571289,
            0.9760319590568542,
            -0.4335307478904724
        ],
        [
            -1.3333680629730225,
            -0.008177097886800766,
            0.03693607449531555,
            -0.6825261116027832,
            0.1986677199602127,
            -2.91060733795166,
            2.209033489227295,
            -0.6190876960754395,
            -2.445765495300293,
            -0.11639675498008728,
            -0.2570425868034363,
            1.6305358409881592,
            1.552620530128479,
            0.411180704832077,
            0.3732125163078308,
            0.010965986177325249,
            0.45566922426223755,
            -1.1216940879821777,
            -0.06408458203077316,
            -0.9872039556503296,
            -1.0576633214950562,
            0.6685079336166382
        ],
        [
            -4.6041131019592285,
            -0.0035652094520628452,
            0.34832119941711426,
            -1.907350778579712,
            0.9229375720024109,
            -5.916936874389648,
            5.1431145668029785,
            -1.031659722328186,
            -5.155875205993652,
            -1.045332908630371,
            -0.05743149667978287,
            4.007872581481934,
            4.183775901794434,
            0.9942823052406311,
            0.5843648910522461,
            -0.07602106034755707,
            1.0474352836608887,
            -1.4192670583724976,
            -0.18258827924728394,
            -1.6268442869186401,
            -1.6834123134613037,
            0.09181855618953705
        ],
        [
            -0.6947768926620483,
            0.006997706368565559,
            0.14376918971538544,
            0.2114870846271515,
            0.56844162940979,
            0.07100224494934082,
            -0.7690681219100952,
            0.2202105075120926,
            0.21512621641159058,
            -0.2033742368221283,
            0.2652464210987091,
            -0.03380870819091797,
            0.18101713061332703,
            -0.2494816780090332,
            -0.14633293449878693,
            -0.35024791955947876,
            0.018795572221279144,
            1.1609091758728027,
            -0.0006567463278770447,
            1.0004918575286865,
            0.7526974678039551,
            -1.3661867380142212
        ]
    ]
}