{
    "output_dimensions": [
        "z_1",
        "z_2",
        "z_3",
        "z_4"
    ],
    "input_dimensions": [
        "tag",
        "opacity",
        "fill_h_cos",
        "fill_h_sin",
        "fill_s_n",
        "fill_l_n",
        "stroke_h_cos",
        "stroke_h_sin",
        "stroke_s_n",
        "stroke_l_n",
        "stroke_width",
        "layer_sal",
        "bbox_left_n",
        "bbox_right_n",
        "bbox_top_n",
        "bbox_bottom_n",
        "bbox_center_x_n",
        "bbox_center_y_n",
        "bbox_width_n",
        "bbox_height_n",
        "bbox_fill_area"
    ],
    "weights": [
        [
            -1.8319948752177584,
            0.8861493510703186,
            -0.07421288785197336,
            -0.4262878030465322,
            -0.42505369313218583,
            -0.9785706858470803,
            -0.06513126376484046,
            0.07606515143146818,
            -0.8361289438887569,
            -1.161854224262574,
            -0.2861138475144865,
            0.31717145153861304,
            0.4955093599624742,
            0.4617318377935276,
            -0.23346110748535268,
            -0.02802630247175991,
            0.2717788830791375,
            0.2748397793437173,
            -0.12302474786151558,
            0.42137778034165335,
            0.9934778050119748
        ],
        [
            0.9079991049504101,
            -0.19805206016563265,
            -0.12567850560275884,
            -0.33278887162112625,
            -0.07723784700992666,
            -0.8135008187681954,
            -0.2131133093822165,
            0.29112340619179494,
            0.4618739257817047,
            0.21608056116200058,
            0.39427722929298725,
            -1.0011954859806322,
            0.14391529978771836,
            0.09295925320075514,
            -0.07654864791247802,
            0.0990962040072865,
            0.174054832986429,
            -0.05857782299816477,
            -0.1208446948966298,
            0.23636902908061957,
            0.03109533678412286
        ],
        [
            0.3274640315226958,
            -0.18864783689895634,
            -0.29509118999823947,
            -0.24372596318263243,
            -0.11669255776243051,
            -0.554890343995959,
            -0.49930449485299644,
            0.25494510525345015,
            0.5296466404949652,
            -0.4815874809910309,
            0.7226020738635807,
            0.5053887365335957,
            -0.2139804909438206,
            -0.040159433924652016,
            0.22665469423735496,
            0.25858296695067806,
            -0.1580660700887861,
            0.15571895547342632,
            0.5698038809451601,
            -0.2563130709682529,
            -0.03039198160016475
        ],
        [
            -0.6228301790597072,
            -0.3499347192532264,
            -0.0025008853163098893,
            0.02632603628959835,
            0.23367891490668685,
            0.19080789345325522,
            -0.2982237796366895,
            -0.19791692790537338,
            0.5045525626013241,
            -0.545247267173585,
            -0.32946247258196415,
            0.17490378766559977,
            0.4750956620529191,
            0.20274488408738703,
            0.4134804196657316,
            0.34520326924060424,
            0.35721097837810367,
            0.4764489396367291,
            -0.24201115379510071,
            0.2819754743616171,
            -0.2672790167775318
        ]
    ]
}