{
    "output_dimensions": [
        "z_1",
        "z_2",
        "z_3",
        "z_4"
    ],
    "input_dimensions": [
        "tag",
        "opacity",
        "fill_h_cos",
        "fill_h_sin",
        "fill_s_n",
        "fill_l_n",
        "stroke_h_cos",
        "stroke_h_sin",
        "stroke_s_n",
        "stroke_l_n",
        "stroke_width",
        "layer_sal",
        "bbox_left_n",
        "bbox_right_n",
        "bbox_top_n",
        "bbox_bottom_n",
        "bbox_center_x_n",
        "bbox_center_y_n",
        "bbox_width_n",
        "bbox_height_n",
        "bbox_fill_area"
    ],
    "weights": [
        [
            -1.7504846810044188,
            0.853355471611028,
            -0.4477034927040214,
            -0.7301410076547454,
            -0.9711310905912238,
            -0.2638524903015514,
            -0.003900633513439882,
            -0.428310660920632,
            -1.1587516550449033,
            -1.381885897527871,
            -0.7721839505834854,
            0.559421715268445,
            0.6561650568826597,
            0.9191657378706904,
            -0.9377101311408562,
            -0.5008865787844446,
            0.5832825511982384,
            -0.2979229887459581,
            0.749651013358334,
            0.4770951948232497,
            1.9623557732014967
        ],
        [
            1.2828325207601856,
            -0.15893408778193666,
            -0.2295677413992665,
            -0.5065785299339455,
            0.25675641410597133,
            -2.6580896132102505,
            -0.38048334663618294,
            0.6317367113613345,
            0.6422955233950887,
            -0.17511638832972365,
            0.653541960688039,
            -2.0208484115806935,
            1.0937672781573036,
            0.9738487608969666,
            -0.6702825789910345,
            -0.25727218603629476,
            1.1569816961340564,
            -0.5808144880059412,
            -0.05771877047861949,
            0.13931366824630287,
            0.35788460480264733
        ],
        [
            0.9219934328788867,
            -0.9881905125918091,
            -0.7169808057504096,
            -1.239369106258585,
            -1.195428230184353,
            0.0717355827767531,
            -1.4291740642577218,
            -0.17303566721823782,
            1.5405475578484171,
            -0.24222444512934516,
            0.8681489380815567,
            0.8960311362945732,
            0.12888486175958105,
            0.3300486108131829,
            0.633790365255144,
            0.65534964940599,
            0.20637145280452884,
            0.3840819119580511,
            0.7543220655081331,
            -0.19170156062809687,
            -0.06866719460010055
        ],
        [
            -0.13592105187777032,
            -0.8951406991983784,
            -0.2916226793696639,
            -0.3505397001395336,
            0.03917210597878068,
            0.9955319811736578,
            -0.6010711961406882,
            -0.8747770578370745,
            0.16355384253520353,
            -0.5512712826766619,
            -0.6860440907015422,
            1.1682146030085614,
            -0.012684548597421403,
            -0.12069026618273959,
            1.1932977220472798,
            0.9111193496062593,
            -0.09492165303009589,
            1.1038241833359546,
            -0.7169065758552313,
            0.14005194002954915,
            -0.7934005387127735
        ]
    ]
}