{
    "output_dimensions": [
        "z_1",
        "z_2",
        "z_3",
        "z_4"
    ],
    "input_dimensions": [
        "tag",
        "opacity",
        "fill_h_cos",
        "fill_h_sin",
        "fill_s_n",
        "fill_l_n",
        "stroke_h_cos",
        "stroke_h_sin",
        "stroke_s_n",
        "stroke_l_n",
        "stroke_width",
        "layer_sal",
        "bbox_left_n",
        "bbox_right_n",
        "bbox_top_n",
        "bbox_bottom_n",
        "bbox_center_x_n",
        "bbox_center_y_n",
        "bbox_width_n",
        "bbox_height_n",
        "bbox_fill_area"
    ],
    "weights": [
        [
            -0.019408964925085904,
            -0.021367515990543005,
            -0.11590229788961934,
            -0.00482125313894141,
            0.05536987995186169,
            -0.03745290316502365,
            0.09217315715544835,
            -0.15052142264668986,
            0.0005181192164663591,
            0.06859938552423724,
            0.06328501724946627,
            -0.01280121707153223,
            0.26688203952950157,
            0.12651756682300544,
            -0.0012876995401534675,
            -0.09250850379128632,
            0.11987295488850215,
            0.003057127369325041,
            -0.0283284475023469,
            0.01072653013480031,
            0.11860315890549915
        ],
        [
            -0.1239653525005557,
            0.09621678663404278,
            0.024391195992540023,
            0.049775765092617656,
            -0.0802795108092658,
            -0.2192759691943794,
            -0.08469303943115962,
            0.09462150701798205,
            0.27733397829660766,
            0.03529965432273377,
            0.022879627897571347,
            -0.1338921188764257,
            -0.024682787665852683,
            -0.05279394245408364,
            -0.03453513772273305,
            -0.013478950310188894,
            -0.03996427357728429,
            -0.028772696410882277,
            0.3008960436142424,
            0.13920278924689417,
            0.2396137750296355
        ],
        [
            -0.03174071643810872,
            0.11245167264790694,
            -0.0810455974055698,
            -0.043320925849470344,
            0.1391149552060298,
            -0.1066486563090123,
            -0.1213020762895839,
            0.10577763179221855,
            0.09367530353279914,
            0.2500968110909094,
            0.05885068407013905,
            -0.23680066458944588,
            -0.03680994486517105,
            -0.10723743882774822,
            0.048244504038698066,
            0.07805364867578536,
            -0.061599211554920846,
            -0.0859200775034749,
            -0.011373012682521475,
            0.07352386680846394,
            0.06559231149890773
        ],
        [
            -0.15825439442228645,
            -0.02212343847011735,
            0.07633269491434537,
            -0.048258763574869974,
            -0.19417335619105758,
            -0.275821058088803,
            0.08335308992270392,
            0.06362039022947738,
            0.14647648315843062,
            -0.02075883175666073,
            -0.07657421563021503,
            -0.22308074409711395,
            0.13766951818613482,
            -0.0054112324699171765,
            0.12477071196348516,
            -0.012729689678775798,
            0.09346409663517544,
            0.12059387886750636,
            0.10110822720227339,
            0.10839954379081473,
            0.09028113979255564
        ]
    ]
}